75 64
67 -0.30060092 -0.03264073 0.11964674 0.19956252 0.15011574 -0.019586178 0.025200764 -0.0020238613 0.08974076 0.1232855 0.44320273 -0.3200281 -0.0862652 0.015075545 0.1636089 0.021675581 0.807945 -0.011326218 0.10258258 -0.11379415 0.23976815 -0.30144018 0.3079841 0.11767743 0.11464242 0.48022634 0.012363284 0.09135248 -0.11529572 -0.12403738 -0.42444047 0.1790171 -0.07034381 -0.05167587 -0.075833485 -0.07012713 -0.06290194 -0.107002735 0.053117525 -0.072817095 -0.11076128 -0.14085354 0.038965046 0.15224779 -0.02690382 -0.123532414 -0.16602135 0.2929981 0.25708985 -0.17631568 0.13151324 -0.13895407 -0.27512693 0.053304918 0.27002656 -0.17062995 -0.06422473 0.029131304 0.33913776 0.04262543 0.07465073 -0.09032615 -0.051981777 -0.18186438
30 -0.29465973 -0.03951148 0.056331277 0.2061537 0.11241821 0.015612676 0.13320895 0.035337932 0.091564454 0.18286984 0.40655524 -0.2859783 -0.13767445 0.007847894 0.18823531 0.063704304 0.8052912 0.07324756 0.08331279 -0.20305087 0.24941023 -0.3012764 0.23904672 0.09507731 0.12649046 0.5140584 -0.0729705 0.16661501 -0.16876097 -0.11387067 -0.37345544 0.13177541 -0.02504656 -0.049003348 -0.055991717 -0.010461227 -0.004871604 -0.10571901 0.034157265 -0.03993551 -0.14610274 -0.13288511 0.06440152 0.19753577 0.036707092 -0.11256242 -0.17270352 0.2713818 0.352154 -0.14275281 0.14748721 -0.14879946 -0.25574625 0.0158093 0.2349755 -0.1808243 -0.018167436 0.036934767 0.25875986 -0.056115855 0.058229577 -0.16135938 -0.011940955 -0.19828145
45 -0.27321744 0.03603681 0.1281788 0.1658025 0.10738324 0.027612174 0.13692634 0.03730677 0.0846814 0.13143577 0.495644 -0.25200447 -0.1074995 0.001764643 0.20815723 0.052934207 0.80145043 0.05730636 0.11305136 -0.19111784 0.23383202 -0.2897405 0.235553 0.09102609 0.09643438 0.5057227 -0.04346453 0.1802303 -0.1372366 -0.0663472 -0.3903572 0.19377066 -0.079955354 -0.13055462 -0.10046565 -0.06913763 -0.05791522 -0.09460261 0.06235909 -0.050662357 -0.11343437 -0.11815508 0.031041704 0.093570374 0.00010732529 -0.118781984 -0.18381074 0.2962069 0.23980671 -0.20829968 0.06504999 -0.19365954 -0.21658313 0.06644711 0.20292968 -0.16125134 -0.026837716 0.11337006 0.25583348 0.00016213577 0.15247653 -0.12553772 0.002825309 -0.24851498
41 -0.33237976 -0.065784976 0.040660687 0.18446197 0.092940345 0.0015187266 0.07791444 -0.011725699 0.08985824 0.09034499 0.4979031 -0.26931205 -0.044641968 -0.024163544 0.19459987 0.04892206 0.7965774 0.023774587 0.12067009 -0.15661098 0.25432572 -0.26614302 0.28845996 0.10897802 0.119778946 0.5010696 -0.008693833 0.20333485 -0.16133605 -0.12080814 -0.33237636 0.12080356 0.006856676 -0.05546608 -0.16214211 0.00233181 -0.05503575 -0.16070533 0.07400155 -0.056282766 -0.15592958 -0.110476166 0.030559333 0.12578322 0.044982314 -0.10869555 -0.18652746 0.22895782 0.33973458 -0.10570129 0.12464195 -0.12744692 -0.23946913 0.03324243 0.22732814 -0.15121749 -0.03434105 0.113868855 0.33833823 -0.03906225 0.11206947 -0.13855489 -0.0519389 -0.20394188
34 -0.2467972 0.033260044 0.13028531 0.18778077 0.074558385 0.049989313 0.117968306 0.035871934 -0.009639029 0.0938604 0.48794615 -0.31263652 -0.09341941 0.029033445 0.15625589 0.049632788 0.8156197 0.083757974 0.08777423 -0.18932359 0.2947496 -0.24470755 0.18376997 0.085472204 0.048495393 0.5089625 -0.07030969 0.16950628 -0.11323865 -0.058861 -0.40951204 0.18239348 -0.039475184 -0.033392332 -0.024366038 -0.024611061 -0.012352343 -0.19950043 0.113092475 -0.07746121 -0.15929593 -0.20821077 0.063957006 0.06812901 -0.010298141 -0.12099035 -0.18922155 0.2541301 0.31456414 -0.16179883 0.12126028 -0.1991223 -0.2611291 0.03928981 0.211089 -0.14665627 0.00029035442 0.06580125 0.21819957 -0.045134302 0.08237475 -0.053342883 -0.014152378 -0.20493478
47 -0.32251683 -0.0338443 0.17901857 0.15030532 0.12284428 -0.0013035375 0.09849912 -0.024306301 0.10279402 0.096587665 0.50934637 -0.17765324 -0.1723881 -0.051651783 0.16760968 0.1330579 0.82257605 0.08675977 0.18133861 -0.11727143 0.2791478 -0.23440605 0.31302312 0.0717307 0.041325342 0.48323527 -0.006587134 0.15451649 -0.12133378 -0.07213798 -0.40792495 0.068519466 -0.0041811476 -0.079595625 -0.13725424 -0.014443648 -0.086554915 -0.06738075 0.018518256 -0.083320625 -0.13937269 -0.09613311 0.12562501 0.14620622 0.06659421 -0.11765185 -0.19473597 0.3187793 0.31517926 -0.14432296 0.1303349 -0.11278499 -0.28755254 0.05923953 0.26508677 -0.18870814 -0.009878242 0.0670071 0.2100082 0.049420487 0.075082436 -0.07155329 -0.047048256 -0.25790814
3 -0.28479317 0.038387097 0.09634875 0.1863329 0.023499947 0.077003084 0.056031868 -0.028505689 0.07049677 0.12308789 0.4698911 -0.30993968 -0.10771841 0.005088667 0.14689198 0.025623476 0.8495246 0.03618856 0.11789838 -0.21080896 0.29364902 -0.28982925 0.23391639 0.12436789 0.05981853 0.41844976 -0.044607695 0.17403881 -0.07860405 -0.11596603 -0.39826697 0.099507466 -0.036494672 -0.082540564 -0.051805872 -0.09764494 -0.045569606 -0.059482776 0.040761203 -0.008776045 -0.110579595 -0.10310171 0.02692859 0.18111941 0.0041683232 -0.1405228 -0.21425906 0.27844548 0.32314834 -0.14548045 0.13247928 -0.20321651 -0.30218425 0.043177415 0.21592276 -0.08932252 0.01201857 0.0820359 0.24232142 -0.02937305 0.112492196 -0.21915509 -0.10372375 -0.19472264
60 -0.36003128 -0.031710155 0.06104824 0.1571416 0.20107976 0.01135116 0.08864734 0.049364652 -0.015892409 0.15245648 0.4326014 -0.2661497 -0.120614015 0.048186578 0.20433979 0.1319965 0.8063052 0.06461294 0.10460166 -0.2060142 0.2735032 -0.32688048 0.22985204 0.030147653 0.0861245 0.42326665 -0.005623806 0.18876687 -0.028047604 -0.076048106 -0.41740718 0.11611755 -0.062548414 -0.041054286 -0.060868062 -0.10694524 -0.036645707 -0.07797211 0.07624283 0.0055906363 -0.086110435 -0.146842 0.06264735 0.15009941 0.045094777 -0.10233769 -0.20998849 0.22696404 0.33796772 -0.13643317 0.111840315 -0.17183007 -0.34017134 -0.06025579 0.18200913 -0.21629609 -0.060164638 0.08264373 0.17533559 0.009797369 0.018832013 -0.1660854 0.018611424 -0.22207682
26 -0.32912782 -0.013096534 0.048801783 0.1460097 0.19562413 0.019357523 0.043730326 -0.022760648 0.1721542 0.15706578 0.4896083 -0.24842328 -0.121369235 -0.04299584 0.24390659 0.008674573 0.7520134 0.032336775 0.15828134 -0.21252638 0.27825868 -0.27241722 0.24083136 0.20044671 0.09955666 0.4634352 -0.070869446 0.17033355 -0.088899724 -0.19895983 -0.44961864 0.12404058 -0.094048895 -0.101464234 -0.05491153 -0.022020701 -0.093227446 -0.012513043 0.03278643 -0.05102294 -0.09147267 -0.12111368 0.06594953 0.14533526 0.10818366 -0.16251987 -0.18309928 0.28929326 0.30884725 -0.1680309 0.063350454 -0.18185808 -0.21326841 0.050215144 0.23456076 -0.1514773 0.0026700639 0.0593473 0.29778594 -0.024020212 0.12511818 -0.1864192 0.039944347 -0.19742616
29 -0.28499195 0.023731444 0.10607229 0.15725495 0.17761914 0.004096189 0.06992312 0.04897865 0.071941234 0.13563181 0.49953797 -0.20917687 -0.10829968 -0.0117733115 0.14654507 0.009719603 0.82115364 0.030455261 0.13925847 -0.16514859 0.2595808 -0.28039032 0.24053071 0.041670907 0.022815203 0.48106447 -0.05572211 0.22748198 -0.087995 -0.06499955 -0.38108447 0.13410519 -0.11252061 -0.11589864 -0.061991464 -0.104333624 -0.15953992 -0.08676703 0.07943096 0.022978464 -0.14358033 -0.15213527 0.10578679 0.11742552 0.008363996 -0.055804808 -0.15425554 0.27858394 0.33123514 -0.0576059 0.120887645 -0.16126543 -0.21040355 -0.05172464 0.2136497 -0.14235203 -0.0003506653 0.022227187 0.28104225 -0.020383073 0.13305637 -0.20057385 -0.0037230288 -0.26908597
38 -0.27649313 -0.037792705 0.09618995 0.1591228 0.15228689 0.05003037 0.11230691 0.057680342 0.12656887 0.10533291 0.50203615 -0.28486577 -0.090842195 -0.045731142 0.2144275 0.06727558 0.7805484 0.057430945 0.14251176 -0.15445554 0.26526704 -0.31928888 0.30312595 0.11794991 0.091478676 0.4318816 -0.035618126 0.2012048 -0.08077568 -0.12543966 -0.37765086 0.16055897 -0.12674268 -0.09497113 -0.14023383 -0.045926083 -0.10766889 -0.07403181 0.07660511 -0.07556736 -0.07802981 -0.14061195 0.09529922 0.0674682 0.049783804 -0.10067983 -0.17254044 0.3343317 0.28176564 -0.22947086 0.03867072 -0.12469271 -0.28064144 0.04491397 0.22207522 -0.17780843 0.025016343 -0.013638478 0.23888281 -0.044069517 0.12051655 -0.1367941 -0.033884462 -0.25416136
28 -0.28446907 -0.0301477 0.11992162 0.15711741 0.14668734 0.09802455 0.05999248 -0.018521491 0.050008446 0.18866056 0.478217 -0.33594772 -0.04055306 -0.09315831 0.21594474 0.03580175 0.79078364 0.0066415933 0.14602026 -0.1112302 0.29884803 -0.31749716 0.2965655 0.14260136 0.013417777 0.45561984 -0.05698849 0.24242331 -0.081619896 -0.14522551 -0.35640213 0.10468252 -0.07335325 -0.11734678 -0.113569915 -0.058684748 -0.04150938 0.00063624495 0.008666042 -0.046025403 -0.067559436 -0.16758221 0.06418754 0.08113455 0.007142354 -0.13646367 -0.18726104 0.3303115 0.2974784 -0.14694892 0.12207199 -0.14661838 -0.30082384 0.046652365 0.27638227 -0.140899 -0.05706238 -0.02565654 0.2777707 0.017387282 0.12145699 -0.16905494 -0.075318895 -0.2331
42 -0.25112802 -0.06059459 0.113239095 0.18116605 0.14494337 -0.0026323895 0.1891124 -0.022497777 0.11327815 0.11060299 0.4219767 -0.26928082 -0.15965351 -0.0509381 0.1613951 0.06415033 0.81029445 0.07096871 0.13100475 -0.15580149 0.2653686 -0.36661887 0.28850368 0.09507472 0.1342864 0.4187579 -0.11981041 0.19128704 -0.13115267 -0.122585975 -0.42120856 0.15277547 -0.087124415 -0.13327694 -0.11048992 0.057860218 -0.11090365 -0.051296346 0.121015646 -0.06704983 -0.1417085 -0.097266234 0.040054657 0.09949325 0.02941349 -0.082014784 -0.2204012 0.3104425 0.2920225 -0.18761852 0.017131329 -0.12576245 -0.28401485 0.051643703 0.25901425 -0.11310381 -0.0988822 0.000384339 0.18966784 0.017116481 0.20514588 -0.1790366 -0.09242414 -0.27941573
1 -0.2511703 -0.08965421 0.11627519 0.13981578 0.09551489 -0.008222312 0.031677056 -0.07880507 0.09815293 0.09679372 0.51213187 -0.21986201 -0.14152935 -0.01235766 0.28721878 0.11877033 0.81550515 0.04693676 0.102723084 -0.12701702 0.17391223 -0.29326302 0.27423167 0.12148249 0.1481957 0.51592207 -0.029283961 0.19159907 -0.11544182 -0.05441268 -0.2982887 0.13278887 -0.087791845 -0.06447846 -0.09796831 -0.042964995 -0.042411253 -0.18745348 0.0640236 -0.004342688 -0.10060509 -0.19627324 0.12231928 0.07649585 0.0034849204 -0.080979474 -0.22342406 0.33569452 0.30475053 -0.11869133 0.025197813 -0.1354853 -0.21610476 0.057135407 0.21403247 -0.10837364 -0.02978234 0.03251201 0.32241005 0.026118644 0.049812328 -0.16789071 0.015665965 -0.2561418
40 -0.28477806 -0.009116198 0.043921135 0.078568704 0.14358667 0.0037634664 0.13572775 -0.027316336 0.097606786 0.108905196 0.46959403 -0.29710907 -0.14562334 -0.0735847 0.22335175 0.061758757 0.829788 0.0522303 0.19885877 -0.18354715 0.30054528 -0.28454185 0.22329451 0.13559118 0.058902368 0.46899617 -0.057093076 0.17823707 -0.12406113 -0.11344074 -0.35191447 0.1081546 -0.05819756 -0.1386547 -0.17094749 -0.020291464 -0.017457465 -0.0708968 -0.0061462517 -0.12022252 -0.074480385 -0.11572104 0.09628922 0.10600398 0.010461606 -0.09801866 -0.17019281 0.30686778 0.31189442 -0.21053703 0.089887634 -0.20427774 -0.27725652 0.0015268315 0.23172025 -0.15361817 -0.010019165 0.027384972 0.2631771 -0.028997598 0.12319145 -0.19958828 -0.036252346 -0.19752929
16 -0.26268822 -0.00597191 0.10528486 0.21348387 0.08020901 -0.013432518 0.07001597 0.03467118 0.098181 0.14516519 0.538201 -0.21607146 -0.051800545 -0.11779052 0.22288279 0.026740544 0.83186585 0.07901192 0.14320593 -0.059664376 0.23366669 -0.22795331 0.27069685 0.08457429 0.105624944 0.47600558 -0.05682053 0.2105175 -0.16783926 -0.06510475 -0.375796 0.17128123 -0.08422478 -0.12354416 -0.09450689 0.052388165 -0.032464292 -0.090475865 0.007940875 -0.043275498 -0.08976419 -0.14016548 0.05963542 0.021918368 0.04353576 -0.11917033 -0.20068209 0.2552133 0.28358397 -0.17037873 0.12221327 -0.1637624 -0.27368096 0.022174895 0.28354466 -0.12213194 -0.05202122 0.012782023 0.29142758 -0.048322994 0.08110993 -0.19603291 -0.032292847 -0.18884411
69 -0.24900565 0.0021988668 0.08972561 0.2112884 0.11988399 0.02471306 0.115976624 0.022353847 0.1048252 0.1278906 0.45246184 -0.27267808 -0.108374044 -0.07172387 0.2326751 -0.011462632 0.79463786 -0.0054244585 0.1254924 -0.20122367 0.25317717 -0.2861669 0.28134385 0.05347917 0.13619368 0.53061557 -0.015539779 0.15471731 -0.078315124 -0.0043717027 -0.36586082 0.16634123 -0.14173988 -0.07218594 -0.0637489 0.02327533 -0.12856573 -0.08462215 0.09275715 0.012303642 -0.10477548 -0.103567064 0.034939136 0.042829424 0.00499308 -0.07020782 -0.20866017 0.3001727 0.3225394 -0.122305155 0.071557775 -0.19753084 -0.22801918 0.023737067 0.27221963 -0.15005252 -0.031660013 0.0955118 0.28098828 -0.0035029121 0.14523229 -0.17909987 -0.06144806 -0.21726146
68 -0.26715046 -0.012359165 0.035603058 0.25402004 0.09978514 -0.0051443567 0.11496435 -0.08465691 0.06650836 0.16281033 0.54020536 -0.33711708 -0.12533721 -0.052101526 0.2067392 0.036110252 0.7748014 0.06665863 0.18222526 -0.18191308 0.28037372 -0.25894234 0.2745735 0.1287392 0.12208551 0.39747667 -0.05241949 0.19011836 -0.058390096 -0.16589674 -0.38415116 0.050703444 0.01656319 -0.08779304 -0.10252361 -0.095377624 -0.08671928 -0.032719754 0.0153874 -0.076718025 -0.15769504 -0.07937041 0.06769411 0.10277344 -0.0015194543 -0.106093414 -0.14005314 0.29801697 0.3532154 -0.17802721 0.100824974 -0.1781237 -0.3135798 0.07054993 0.27986097 -0.17799428 0.023396885 0.014937682 0.2665414 -0.03452403 0.07744939 -0.16780087 -0.04025614 -0.16512047
59 -0.2827898 -0.011313522 0.10509089 0.1097071 0.17367539 -0.0010914279 0.09880506 -0.031066364 0.14458789 0.082149886 0.4944976 -0.35691586 -0.071176015 -0.075416416 0.20088592 0.05676618 0.74969906 0.008601795 0.13787481 -0.16293761 0.2742615 -0.29309478 0.26888886 0.15682918 0.08543198 0.4811464 -0.013527358 0.19951478 -0.05776393 -0.1561558 -0.4302531 0.15746975 -0.02006763 -0.068597436 -0.17339697 0.04085704 -0.07231648 -0.007917733 0.026354818 -0.06675413 -0.060645178 -0.083640456 0.015635073 0.12286536 0.04266002 -0.07581979 -0.23463356 0.357376 0.29563975 -0.15700923 0.08345224 -0.1792335 -0.2849766 0.0946024 0.21829814 -0.17245013 -0.007273512 0.050811253 0.2403445 -0.003084743 0.22739716 -0.16752644 -0.007703274 -0.19929954
35 -0.31414643 -0.0018419786 0.16412841 0.16831768 0.17681958 -0.022373274 0.039484482 0.076191455 0.072960995 0.19119294 0.37657136 -0.28065965 -0.12169093 -0.004481977 0.17213164 0.07490158 0.8193972 0.04202647 0.12982926 -0.19903485 0.19271754 -0.23421426 0.2845204 0.0052347407 0.094352216 0.5348979 -0.059020612 0.14396764 -0.028007172 -0.0546247 -0.35884568 0.2042367 -0.016189145 -0.0349257 0.031298112 0.0011840637 -0.083047345 -0.16093817 0.13130617 -0.0137943635 -0.17128722 -0.22578959 0.06299762 0.14328448 -0.0063378164 -0.15485032 -0.1648289 0.26660573 0.31054989 -0.15908349 0.04925446 -0.13348073 -0.26632935 0.08332177 0.16005343 -0.13367973 -0.013605345 0.12939999 0.1737745 -0.06899192 0.073209934 -0.16179992 -0.044771604 -0.2370061
50 -0.3093191 -0.023443429 0.092313 0.16337755 0.17501505 -0.059079114 0.10679267 -0.0034980588 0.083286084 0.08445008 0.48330036 -0.29203743 -0.089850925 -0.08528677 0.20227323 0.045895547 0.78868455 0.03574473 0.1652263 -0.12032328 0.2473519 -0.24450848 0.26814577 0.081966214 0.113205954 0.5233433 0.0067520067 0.17530817 -0.12352461 -0.077536784 -0.4005185 0.14322948 -0.11927165 -0.07148649 -0.100641236 -0.02862604 -0.059926752 -0.15932882 0.060734265 -0.08861804 -0.14495671 -0.11579015 0.09177697 0.1305535 -0.033351228 -0.09764779 -0.19933459 0.26270053 0.28065822 -0.17312254 0.0672619 -0.15723348 -0.21522437 0.0633997 0.23112203 -0.19950202 -0.013125365 0.09656488 0.23013438 0.06373496 0.10582594 -0.07931961 0.01789589 -0.27161694
19 -0.27333593 0.007951288 0.095817 0.113695055 0.11606997 -0.0013846888 0.15620013 -0.07900406 0.14111535 0.13794917 0.5109442 -0.2923765 -0.09037704 -0.04031713 0.21841717 0.071229964 0.83692515 0.06818268 0.25849223 -0.106456526 0.25390193 -0.26353246 0.24846622 0.062393 0.071026646 0.45174035 -0.0471531 0.11655837 -0.032605685 -0.10049626 -0.3912332 0.14705619 -0.08837664 -0.14235388 -0.18323119 0.046937753 -0.095748626 -0.033496853 0.03502324 -0.042699326 -0.075294755 -0.09584612 0.032409947 0.12425432 0.022700367 -0.047270536 -0.27295846 0.30066907 0.29323402 -0.18373936 0.07124892 -0.19967008 -0.28335956 -0.010199409 0.24194045 -0.18136436 -0.06283105 -0.0151449405 0.27114248 -0.066486835 0.14956783 -0.17387943 -0.090470746 -0.14677146
21 -0.2786473 -0.10538973 0.10533462 0.16622272 0.13357738 0.037983578 0.114163086 0.012817487 0.12169222 0.07889992 0.49167395 -0.32032833 -0.13268657 -0.05583299 0.15593493 0.06048589 0.82390296 0.05308755 0.111835964 -0.19487657 0.27579036 -0.28620845 0.29834586 0.11374052 0.0939481 0.4706072 -0.015146559 0.114969574 -0.078822955 -0.0824157 -0.3739562 0.11867145 -0.04108585 -0.11705911 -0.23061848 -0.039571095 -0.07847953 -0.0028302015 0.024720218 -0.10314043 -0.07524043 -0.11614005 0.07221283 0.032355003 0.05925038 -0.039212637 -0.22455803 0.3247536 0.28157935 -0.13559535 0.055816714 -0.19153817 -0.26268002 0.021421157 0.2491166 -0.1595392 -0.049363416 0.018168943 0.29896393 0.040960703 0.118259974 -0.15369093 -0.05471944 -0.19611387
66 -0.28429073 0.010956782 0.13713138 0.108311445 0.075695634 0.0021927098 0.14346537 0.079650454 0.09729426 0.12534374 0.4942429 -0.32273299 -0.12449095 -0.011875706 0.13658743 0.032969914 0.7940587 0.061232552 0.15114012 -0.20048419 0.24118961 -0.287577 0.32772076 0.093052946 0.08602768 0.46497712 -0.0649341 0.16717066 -0.066490844 -0.16738541 -0.345526 0.2078157 -0.023337932 -0.1903153 -0.17176838 -0.081161655 0.0072131413 -0.018721674 0.030676361 -0.062776245 -0.06834808 -0.054366987 0.094150156 0.12669082 0.07152414 -0.095452204 -0.18655862 0.3930248 0.23344481 -0.21363476 0.09867399 -0.1303943 -0.3306062 0.0019038414 0.24436626 -0.2044953 -0.034443777 0.05828509 0.24958752 -0.02943025 0.16177428 -0.25522107 -0.025840761 -0.16082767
62 -0.29511696 -0.0007438573 0.1386606 0.21719776 0.10750472 0.0530144 0.032719713 -0.03672756 -0.026971214 0.1275486 0.4072421 -0.36728767 -0.12763727 0.013863055 0.20741852 0.11233256 0.834564 0.081847966 0.08800258 -0.126068 0.17848434 -0.24358658 0.24535896 0.07211148 0.1378347 0.49598557 0.09395609 0.21625464 -0.101853825 -0.06999547 -0.3426994 0.120024025 -0.037809193 0.0066774082 0.0422894 -0.084004745 -0.052105933 -0.09978252 0.19790909 -0.043580357 -0.2255338 -0.22566234 0.00010797738 0.1482596 -0.045820452 -0.063919716 -0.15506585 0.23236567 0.32724816 -0.10116193 0.024113862 -0.17027982 -0.21452393 0.009788508 0.17725624 -0.11097111 0.08705521 0.16192167 0.14816602 -0.080824144 -0.04297236 -0.16939886 0.023678558 -0.27863544
52 -0.31581494 0.05777696 0.13818628 0.20525633 0.18068826 0.047034357 0.16341509 0.011870849 0.07701727 0.11230252 0.5407381 -0.30819327 -0.11571163 0.009218193 0.18926495 0.015855465 0.77648264 0.0042781783 0.14399898 -0.22774914 0.30822867 -0.2928642 0.24641816 0.21492086 0.11363777 0.3908195 -0.071353726 0.16024238 0.024177495 -0.16980825 -0.3353863 0.11477821 -0.029886233 -0.045603603 -0.031777695 -0.066776186 -0.033644475 0.045024898 0.04478244 0.0068614148 -0.11405013 -0.18786076 0.052774608 0.12139325 0.10210421 -0.117945336 -0.21211348 0.27541494 0.3326949 -0.23821107 0.113706365 -0.15301435 -0.3342687 0.045698255 0.21882927 -0.028748555 -0.036263153 0.13788828 0.26335338 0.0042465734 0.05149178 -0.21965101 -0.10891413 -0.16222475
56 -0.23946384 -0.07802069 0.08592739 0.14467897 0.1223288 0.0037402455 0.15280454 0.0031113527 0.083332054 0.14171089 0.53511757 -0.30002964 -0.025014518 -0.121099725 0.16738595 0.018978756 0.80352414 0.061216123 0.20672037 -0.17966484 0.2736171 -0.29826698 0.28847966 0.0061208075 0.05487489 0.47721776 -0.104729004 0.20462897 -0.10129239 -0.11175512 -0.3191765 0.19463435 -0.112821475 -0.12259418 -0.14516912 -0.034439076 -0.031284552 -0.026337637 0.06632601 -0.06506824 -0.13032655 -0.093668155 0.11497262 0.023398759 -0.017486753 -0.094569854 -0.21738537 0.30341274 0.33247203 -0.20950541 0.09171915 -0.12502693 -0.26498452 0.07022163 0.23437993 -0.20657411 -0.039241806 0.13610351 0.22771966 -0.06231678 0.17446278 -0.17832811 -0.089702666 -0.17272423
57 -0.21925193 -0.00032482186 0.1782418 0.22287907 0.13393863 -0.04599889 0.013534996 0.008254649 0.032916863 0.17564943 0.4284266 -0.22561368 -0.22710098 0.028840013 0.19761136 0.09915035 0.80726707 0.08636457 0.15295163 -0.12760903 0.25871408 -0.26854476 0.2754065 0.040824734 0.090151474 0.52351797 -0.018487237 0.21303487 -0.16773355 -0.012012891 -0.3237942 0.19668815 -0.047316335 0.046890646 -0.046794478 -0.023572508 -0.06537988 -0.1301111 0.1121449 -0.102432124 -0.24403873 -0.232556 0.072432645 0.13574766 -0.09038682 -0.090314195 -0.110895686 0.19983417 0.36341643 -0.13464469 0.11043565 -0.13910796 -0.18974346 0.037069507 0.15082073 -0.12088367 0.07155354 0.08537883 0.2222745 0.028833523 0.10388534 -0.12376367 0.015160271 -0.3024958
15 -0.34494352 -0.07815224 0.07740817 0.13213651 0.13718635 -0.0071258787 0.030351229 -0.046926416 0.04608562 0.134683 0.41428685 -0.36184928 -0.062435333 -0.15740202 0.18868388 0.08325102 0.79690206 -0.028116582 0.15317504 -0.15302813 0.28928062 -0.30445468 0.24796471 0.103314176 0.11756593 0.49092528 -0.025229724 0.18144035 -0.14726488 -0.0669451 -0.44090775 0.09810004 -0.09787371 -0.22318965 -0.15631247 -0.0014456271 -0.095975615 -0.049076237 -0.007949949 -0.032350063 -0.13058563 -0.07274422 0.10782221 0.071717665 0.0020354341 -0.05196464 -0.22687176 0.30830103 0.31575495 -0.23433016 0.09424152 -0.15057075 -0.27790296 0.07875841 0.21375354 -0.120607674 -0.04838132 0.021937417 0.23279336 -0.07097445 0.191178 -0.2144001 -0.08744171 -0.17726232
39 -0.3980565 0.009874971 0.111783326 0.25224432 0.062597156 0.03900346 -0.0059026573 0.011994497 0.07883817 0.18333048 0.4676564 -0.3155603 -0.12632236 0.017918412 0.1949209 0.13933234 0.75212914 0.016953697 0.105997495 -0.20637889 0.22259891 -0.24781053 0.19689825 0.12169573 0.11269875 0.43242455 -0.0040541803 0.18892872 -0.04038129 -0.16515921 -0.4610373 0.1173838 0.04617849 0.008694687 0.0035994165 -0.06302734 -0.01680971 -0.08831609 0.15645479 0.053750873 -0.095786996 -0.16387019 0.047386527 0.17213267 0.06884855 -0.08933059 -0.12635994 0.21504587 0.3195594 -0.1704204 0.068196505 -0.1563799 -0.28369203 0.09641073 0.3081185 -0.20074594 -0.047441714 0.09732294 0.26565012 -0.025470398 0.05650709 -0.17552742 0.010851765 -0.23007426
7 -0.27241385 -0.040434815 0.11501823 0.074091196 0.10657631 0.015702471 0.072822355 -0.11461248 0.11497353 0.10558897 0.5243467 -0.31818256 -0.09721037 -0.060043424 0.16612154 0.08336345 0.78506625 0.056176852 0.13279855 -0.20489734 0.24301171 -0.28709903 0.28317866 0.11876998 0.13774672 0.48905247 -0.067710675 0.2023297 -0.15212291 -0.10062131 -0.37604797 0.11765503 -0.09843087 -0.15188892 -0.2168722 0.045128405 -0.073818445 -0.03279073 0.059154764 -0.046490025 -0.07302443 -0.0553543 0.092053264 0.087616734 0.07791762 -0.048644155 -0.140072 0.33880144 0.28388476 -0.22599296 0.12704746 -0.12307634 -0.29837236 0.104959555 0.27262932 -0.16638467 0.03500324 0.013725061 0.31990275 0.029601898 0.19265077 -0.19395371 -0.006660301 -0.11946105
8 -0.2924616 -0.06989296 0.048324972 0.19248717 0.07016638 0.06721352 0.04417491 0.018096631 0.08840508 0.13808991 0.45286557 -0.2949832 -0.12925807 0.011241838 0.15925428 0.051262297 0.8345685 0.12452271 0.08721449 -0.18947114 0.13981752 -0.3224942 0.22521237 0.004606485 0.07695358 0.5127999 0.02080858 0.29691985 -0.06500859 -0.10866884 -0.28925428 0.10722687 0.060560375 0.02975443 0.07627914 -0.07211463 -0.061281957 -0.0809691 0.22639836 0.031148762 -0.13554703 -0.2290673 -0.027123058 0.16699941 -0.024512 -0.026983334 -0.14630406 0.16266428 0.3454247 -0.11568687 0.06303738 -0.2146512 -0.28102165 0.006616583 0.23914054 -0.119497895 -0.023305058 0.1828568 0.22126177 0.062008176 0.06667544 -0.07599664 0.02619804 -0.19635753
36 -0.2925992 -0.076291986 0.10609053 0.21228497 0.05502176 0.11113268 0.060330026 0.037492502 0.027829241 0.10698559 0.42939746 -0.30021605 -0.11206522 0.040762443 0.14261861 0.09201278 0.79775035 0.08589663 0.053045344 -0.14423469 0.19841444 -0.29958123 0.26237732 0.10996231 0.122628935 0.53679454 -0.0055121602 0.13868003 -0.03823198 -0.10284964 -0.41662368 0.14559269 0.02248418 0.05834896 0.057648342 0.026848646 -0.061577313 -0.10514213 0.1924929 -0.0390338 -0.22305608 -0.2192519 0.0078093763 0.16928719 0.043119147 -0.07478925 -0.11526623 0.2293283 0.34141573 -0.110558875 0.070251375 -0.1758366 -0.3050498 -0.06721029 0.23619212 -0.054458693 0.0152417915 0.121172965 0.19629012 -0.04952029 0.0102127455 -0.13019018 -0.047109205 -0.19035853
10 -0.30240086 -0.057570383 0.022471238 0.09691488 0.14586015 0.029703662 0.07382443 -0.052581944 0.09947403 0.071781345 0.5166231 -0.36202043 -0.09748194 -0.18303677 0.12793298 0.079339474 0.7886835 0.08770532 0.14865991 -0.17024668 0.27125657 -0.33726707 0.2497818 0.05217063 0.076651335 0.47259307 -0.064519465 0.14083531 -0.123775885 -0.11128695 -0.39915833 0.15038238 -0.08616344 -0.13204138 -0.25471377 0.024234673 -0.09179535 0.003658271 0.11142703 -0.10665131 -0.16290925 -0.0776897 0.08343315 0.058720604 0.05643906 -0.0150534455 -0.14216696 0.3073668 0.33055943 -0.25838754 0.04364482 -0.16927043 -0.30666068 0.081166185 0.20140864 -0.16431533 0.002837433 -0.054662813 0.29531398 -0.09657673 0.10830963 -0.1810057 -0.067722656 -0.16860674
12 -0.2411172 0.024693025 0.04767399 0.11852082 0.14331065 0.035653606 0.13369723 -0.04380195 0.13671282 0.1586681 0.45668575 -0.312583 -0.14474407 -0.09084561 0.21267924 0.06150446 0.8002544 0.03953416 0.11786542 -0.17744753 0.28609058 -0.3248135 0.2488866 0.110631175 0.1154368 0.5506046 -0.089421235 0.13702302 -0.106701225 -0.08261034 -0.41685438 0.14513084 -0.0832676 -0.12421924 -0.15016752 0.09527301 -0.03235165 -0.011217156 0.033555526 -0.043183602 -0.09326096 -0.049116977 0.19387455 0.097972535 0.04716542 -0.044447474 -0.23640406 0.23882967 0.21045858 -0.23687097 0.09490564 -0.12208346 -0.29824936 0.04004927 0.29358035 -0.20022178 -0.02974927 0.015366779 0.26116118 -0.0022753144 0.14090231 -0.25924298 -0.020797033 -0.1134179
14 -0.32677218 0.036247298 0.1535896 0.097508244 0.09930378 -0.019088905 0.019771317 0.08832396 0.10985222 0.10738643 0.46523762 -0.22680008 -0.1166975 0.015260622 0.15538067 0.04246558 0.8125331 0.04830557 0.15540928 -0.11978454 0.24728906 -0.22697681 0.28742728 0.023870729 0.11897646 0.5148709 -0.026874682 0.26675013 -0.13139151 -0.07474115 -0.35487247 0.17499456 -0.08575061 -0.05847621 -0.08413503 0.035818588 -0.041426588 -0.19506909 0.09029767 -0.070348464 -0.14792529 -0.20665433 0.05584457 0.09574491 0.01970943 -0.05779634 -0.24152495 0.19540079 0.36617935 -0.14760588 0.12008561 -0.15738732 -0.16250959 -0.025315477 0.12100055 -0.09373933 -0.039134 0.050217558 0.2357442 -0.012707412 0.06218162 -0.20106341 0.0035520666 -0.24675718
9 -0.25604814 0.011146455 0.11137754 0.1597317 0.12518701 0.026703428 0.039317053 0.034168612 0.14006051 0.18974733 0.4997661 -0.3771612 -0.09518117 0.026747748 0.14197661 0.032223538 0.8010878 -0.048042994 0.1494026 -0.25462568 0.29334456 -0.2939509 0.28068706 0.14160006 0.09045467 0.41148007 -0.12476513 0.063022524 0.07271934 -0.23061085 -0.43250057 0.062157538 -0.07265734 -0.14290376 -0.021454265 -0.10967852 -0.0023166218 0.054915026 0.0048035397 0.020946909 -0.12737536 -0.13032639 0.015266286 0.13521698 0.072296984 -0.043077108 -0.2425449 0.24207447 0.31053331 -0.17739257 0.052665878 -0.15304415 -0.33763897 0.071155556 0.30642173 -0.16841389 -0.044006992 0.062432922 0.19673751 -0.004319321 -0.0016273346 -0.22790019 -0.08571316 -0.24358127
20 -0.3047067 0.021073727 0.11631388 0.22378127 0.039416306 0.05685358 -0.0585763 0.0018316777 0.010174461 0.18937758 0.4743744 -0.38448048 -0.095036484 0.05898878 0.19397582 0.11126664 0.7761039 0.010746438 0.05047318 -0.19023429 0.18566677 -0.28631204 0.18653499 0.0787924 0.15913424 0.45160532 0.05278415 0.14216694 -0.099034116 -0.09884645 -0.45080733 0.11141634 0.017233802 0.05866534 0.04027511 -0.101137176 -0.10512536 -0.14069895 0.22370064 0.023053959 -0.20713997 -0.16729553 -0.040178455 0.16312401 0.057910614 -0.062104188 -0.1635309 0.2112636 0.33258164 -0.09691214 0.15348722 -0.16736907 -0.24694455 0.0036641702 0.23206483 -0.12722176 0.00490072 0.19056632 0.21064314 -0.025290359 0.10230972 -0.18889266 0.017363636 -0.17785002
44 -0.3645221 -0.012931561 0.099003956 0.19288027 0.07761127 0.12586616 0.010819908 0.019622648 0.031937517 0.15224463 0.45614576 -0.3444044 -0.08670845 0.058289185 0.21341385 0.060219664 0.7549591 0.07583507 0.18120106 -0.24099898 0.15081263 -0.21334897 0.2565928 0.008563858 0.13188483 0.40988937 0.05316638 0.19904935 -0.11346426 -0.16214712 -0.4915126 0.10311266 -0.023327908 0.054780014 0.05399128 -0.037101436 0.010986256 -0.16149828 0.20678577 0.05000621 -0.11901502 -0.2338379 -0.07550621 0.17406133 0.011848919 -0.08861232 -0.174292 0.16317481 0.35119566 -0.16277963 0.1844333 -0.15959467 -0.2608144 0.034195744 0.24323927 -0.10082249 -0.0057466393 0.1318226 0.19401437 0.021962672 0.102459945 -0.17463487 -0.014780827 -0.2108121
2 -0.14644162 -0.066173546 0.071412735 0.21636063 0.14768045 0.022295719 -0.01700586 0.027357403 -0.03210399 0.09634589 0.47503555 -0.29931313 -0.27838656 0.114515364 0.14635745 0.04452649 0.8733422 0.02203796 0.11165441 -0.04419901 0.16215196 -0.14020395 0.29557422 -0.10282093 0.10264716 0.57003766 0.018386634 0.25353417 -0.007050927 -0.05575697 -0.41479528 0.095457345 -0.07441089 0.077959895 0.04882373 0.023435814 0.037740424 -0.23609 0.18098646 0.050216045 -0.19720985 -0.33772376 -0.05961456 0.04632341 -0.01350716 -0.12085722 -0.07684024 0.10065455 0.32468975 -0.11077235 0.052663486 -0.10390224 -0.20574474 -0.09232864 0.1591347 -0.103453875 -0.006266608 0.109764665 0.19161564 -0.06186647 0.12472847 -0.14233743 0.066012 -0.18988703
22 -0.3737607 0.013206979 0.1314586 0.25178954 0.06951374 0.038322702 0.098066784 -0.00055140787 0.092352495 0.23207101 0.46113256 -0.3852765 -0.13705957 0.030673627 0.19087386 0.104958236 0.75310534 0.009281247 0.1596796 -0.25922 0.3454898 -0.24360849 0.21722548 0.20998138 0.13963595 0.36834365 -0.11963225 0.20050718 -0.03581036 -0.20025922 -0.43908468 -0.03504538 0.015040742 -0.07294376 -0.082113616 -0.1012738 0.06634057 -0.05755555 -0.00945546 -0.00035796934 -0.12220333 -0.16156839 -0.02979645 0.14067866 0.13293135 -0.08606565 -0.16880162 0.3056026 0.34061217 -0.17759863 0.07470095 -0.19597214 -0.2784373 0.005532287 0.25749418 -0.0696174 -0.06432752 0.078382246 0.22595333 0.0048790746 0.0881481 -0.21048099 -0.032009397 -0.23374288
48 -0.29561877 -0.038157616 0.043775126 0.10225019 0.17179242 0.027164834 0.14575486 -0.014626897 0.11484157 0.10106296 0.47172233 -0.35312575 -0.24979414 -0.09621915 0.17007707 0.070172064 0.83099556 0.0519337 0.18250465 -0.16165242 0.236459 -0.26057598 0.21054961 0.09777732 0.17511278 0.40884855 -0.04783586 0.19701701 -0.07097974 -0.13243133 -0.398756 0.16124466 -0.17620343 -0.17139925 -0.16828866 0.00046903203 -0.10086933 0.061760668 0.031628028 -0.18859552 -0.05426575 -0.103558384 0.12115533 0.06554571 0.09076618 -0.041702513 -0.18115276 0.33332908 0.29849693 -0.24573176 0.14635813 -0.13975707 -0.22769056 0.05609 0.28638217 -0.17980348 -0.01680105 0.02582633 0.24062891 -0.014140378 0.16386533 -0.18025373 -0.0944282 -0.10115537
24 -0.24278834 -0.07885271 0.071575284 0.18708229 0.11609572 0.047352206 -0.017978555 0.08312478 0.070951834 0.22851825 0.45390716 -0.3280818 -0.10076701 0.04727834 0.20469327 0.05633301 0.8220651 0.07392802 0.11159532 -0.14976156 0.22782089 -0.26968342 0.24266344 0.05621804 0.14118099 0.5015063 0.014989072 0.11064693 -0.03869904 -0.07200669 -0.34699973 0.15703623 -0.018610243 0.10417503 0.09575819 -0.019032309 -0.029982053 -0.059517544 0.14643814 0.012709702 -0.17758642 -0.27526075 -0.06969569 0.14452326 -0.0020968001 -0.108189516 -0.10678981 0.16208406 0.31263027 -0.12542374 0.061543323 -0.18119341 -0.32302558 0.0015149149 0.19298513 -0.16496634 -0.006613397 0.19611083 0.2029247 -0.08890414 0.06462865 -0.13447239 0.025255682 -0.18699344
58 -0.21044534 -0.07475324 0.06643057 0.21499714 0.18043695 0.05634934 -0.13112603 0.008919004 0.027596287 0.09286061 0.4417238 -0.28907987 -0.25150916 0.068279654 0.21953733 0.154903 0.8198364 0.052935775 0.017885234 -0.14048651 0.14301902 -0.21828613 0.2922087 0.014591382 0.07951516 0.5793107 0.1495908 0.264972 -0.060400672 0.022306833 -0.41057798 0.15237416 -0.11961426 -0.09477038 0.08815556 -0.026250426 0.03172215 -0.15248646 0.24753849 0.0076124384 -0.26125684 -0.39187783 -0.081655405 0.12969428 -0.007988109 -0.0848403 -0.106718004 0.12637539 0.27403882 -0.12629685 0.03439865 -0.113200076 -0.13739817 -0.107067816 0.3113751 -0.12275596 0.08524293 0.16728473 0.041193627 -0.09694308 0.060331896 -0.16755818 0.12352077 -0.08730255
61 -0.29125276 0.040190935 0.050816864 0.088837445 0.08801515 0.053704232 0.15880343 -0.13875042 0.16324082 0.15215655 0.45528376 -0.33430207 -0.14760487 -0.056375816 0.20710109 0.119969875 0.8092217 0.03297127 0.19114578 -0.0906974 0.27206796 -0.30204648 0.29440218 0.05315682 0.09789137 0.5098501 -0.043830667 0.2537733 -0.1649304 -0.13860294 -0.3363281 0.08348265 -0.03831648 -0.18118991 -0.22040044 0.0705329 -0.13673456 -0.010524345 0.037654664 -0.09735642 -0.024338087 -0.059773363 0.068023115 0.10429321 0.027252235 -0.09569578 -0.17895055 0.36601466 0.28762487 -0.21775883 0.11040078 -0.09896257 -0.24806242 0.022314146 0.29514977 -0.21238106 -0.0026462304 -0.037193276 0.30696663 -0.019380163 0.14555211 -0.15808335 -0.031106783 -0.15999559
46 -0.30093974 -0.042998586 0.09659089 0.18670824 0.08999424 0.14622273 -0.012654132 0.053537957 -0.01875154 0.17449942 0.43622947 -0.28764236 -0.12905896 0.11854143 0.19520317 0.20572896 0.80904543 0.10080803 0.052878223 -0.18059032 0.1807714 -0.29417372 0.16418023 0.059923243 0.079036966 0.53695625 -0.014020101 0.12999986 -0.118303314 -0.13413318 -0.45143119 0.114479125 0.068685964 0.00545508 0.14023867 -0.08347555 -0.13266414 -0.121112354 0.1811061 -0.014471973 -0.21555987 -0.27898276 -0.03098917 0.09855807 0.08881467 -0.057581045 -0.08793573 0.19276644 0.3409356 -0.16035938 0.056851756 -0.07407295 -0.24578986 -0.049859937 0.24878466 -0.11291817 -0.046253387 0.16576216 0.13148826 -0.078779235 0.08590582 -0.119375885 0.014660095 -0.20232251
4 -0.24115199 0.011816673 0.040247567 0.04760405 0.16454698 0.08994599 0.027694842 -0.07058731 0.18360375 0.13840841 0.5323784 -0.32769543 -0.08702536 -0.0064025437 0.20766902 0.11515042 0.8348274 0.10164802 0.18203957 -0.17577636 0.30042785 -0.27576905 0.2950427 0.08295867 0.0071686595 0.5001831 -0.065557614 0.104950495 -0.121924795 -0.056315646 -0.31912237 0.073892444 -0.1588993 -0.09751157 -0.26991525 0.009530358 -0.1284738 -0.07539215 0.044280652 -0.15186806 -0.07293579 0.012909888 0.06767159 0.02222056 0.088669315 -0.16605465 -0.18492472 0.3353462 0.2515396 -0.24403894 0.06897518 -0.12521538 -0.3577629 -0.0018978543 0.29816693 -0.14337102 -0.0040596286 0.045192357 0.23353866 0.037362184 0.18193549 -0.1857155 -0.07151569 -0.14398034
49 -0.1762141 0.03640886 0.028630527 0.24154449 0.08218737 0.037671313 0.052623723 0.05347312 0.10608963 0.21017134 0.53641284 -0.37522796 -0.17534077 0.019929199 0.20132367 0.017903382 0.77891433 0.01515062 0.106357925 -0.295981 0.33212927 -0.27194363 0.262169 0.14129665 0.21261717 0.36486796 -0.11567372 0.1246328 0.021702662 -0.20431969 -0.37461475 0.06209308 0.013188694 -0.084503874 -0.045653764 -0.145317 0.011292973 -0.02122292 -0.039647378 -0.00062304555 -0.20598812 -0.1251468 0.004766359 0.115955025 0.08821005 -0.07197687 -0.18655588 0.2782978 0.34938946 -0.07832423 0.15034819 -0.1740876 -0.34164587 0.0830911 0.26571712 -0.15694061 -0.040219866 0.075697795 0.27691057 -0.011408776 0.078254975 -0.20563509 0.013322657 -0.17026229
54 -0.2655417 -0.020676585 0.101202056 0.21624914 0.14685653 0.054415908 0.045753915 -0.06863088 0.03826324 0.08460959 0.5115638 -0.31802174 -0.10598681 0.044104416 0.27665457 -0.018911205 0.73092186 0.0744101 0.18197119 -0.30867013 0.31974083 -0.2692315 0.26531336 0.23452698 0.1199237 0.4882389 -0.04448855 0.08502695 0.015753778 -0.2285542 -0.41736287 0.066370904 0.09261706 -0.13860911 -0.06958683 -0.18521148 -0.044806585 -0.013193828 -0.059218954 0.006979435 -0.17041092 -0.09482128 -0.018761246 0.1832247 0.02528744 -0.16026981 -0.17691587 0.3132968 0.368547 -0.20064381 0.03236849 -0.21398513 -0.277914 0.08355668 0.24877955 -0.043458067 -0.17470488 0.02344603 0.25813115 0.01677493 0.07111212 -0.22437139 -0.037165936 -0.11070887
11 -0.30312464 -0.034649808 0.107832395 0.26978102 0.19123389 0.09876502 -0.1677373 0.10700743 -0.024811316 0.07547722 0.42698097 -0.36094213 -0.3277465 0.12421754 0.12980524 0.13296221 0.93163306 0.0940381 0.10272004 -0.025188858 0.15432797 -0.10569868 0.33103633 -0.078329705 0.067844786 0.58778816 0.20176356 0.21536696 0.007155661 0.06926965 -0.37529233 0.06998294 0.06619806 0.021682836 0.07749732 -0.046182133 -0.0056388276 -0.10628207 0.252349 0.021842351 -0.30128896 -0.38892573 -0.09603709 0.11544844 0.021979114 -0.046841882 -0.091593646 0.0491018 0.25220644 -0.22558409 -0.055658303 -0.083511494 -0.16380475 -0.13294362 0.20586848 -0.105961815 0.04509713 0.1284246 0.038934045 -0.044925556 0.097529165 -0.15698835 0.15468101 -0.11215074
73 -0.24625595 -0.10596472 0.0411725 0.117754295 0.15243587 0.09970952 -0.13322307 0.038327754 -0.026611751 0.09666971 0.4906314 -0.41197622 -0.16248555 0.09827941 0.15655428 0.032600105 0.897733 0.09071583 0.052885268 -0.13277045 0.13817354 -0.15570384 0.18844156 -0.07691647 0.12069611 0.5646555 0.0890751 0.22176743 -0.056532823 -0.029314987 -0.33385304 0.12023132 -0.028031304 0.0030478449 0.13932075 -0.051835887 -0.03562606 -0.11713606 0.21830113 0.05777304 -0.17162272 -0.37988248 -0.054143026 0.19005635 0.056681894 -0.13236244 -0.014882303 0.034160245 0.39041838 -0.1661745 0.02698626 -0.0673626 -0.24620974 -0.122984625 0.21159326 -0.010569808 0.057417635 0.26094088 0.1234115 -0.042928204 0.12564285 -0.06880743 0.10120391 -0.12876359
25 -0.19508153 0.022880584 0.02887724 0.1619594 0.23865156 0.03207289 -0.122695774 0.13495454 -0.027160844 -0.004495074 0.40841463 -0.29248863 -0.35319605 0.05455908 0.1304676 0.09054903 0.9354765 -0.027656686 -0.02830853 -0.03011063 0.05813465 -0.18631741 0.3564551 -0.056627933 0.02359074 0.70585907 0.103377864 0.30980366 0.029349992 0.041616816 -0.39538607 0.08268685 0.018450186 -0.011182212 0.044863593 -0.012530018 -0.022074247 -0.15785837 0.16056094 -0.015108047 -0.3730775 -0.34309697 -0.14794251 0.09678198 0.06605463 -0.059148658 -0.014384782 0.06816165 0.30578786 -0.20043483 -0.09569249 -0.115807414 -0.18661363 -0.046736944 0.14624183 -0.07942696 0.1282084 0.13250023 0.071077384 -0.11544271 0.052434843 -0.07710827 0.066080295 -0.1890155
13 -0.1701257 -0.09790636 -0.06381159 0.2789997 0.3227664 0.10196594 -0.18624055 0.10782705 -0.04571915 -0.016193373 0.43845412 -0.30278087 -0.3471867 0.116852306 0.18434845 0.08970885 0.94821745 0.116429694 0.078369804 -0.052494343 0.13127252 -0.10828006 0.2661623 -0.06080899 0.0334979 0.6039556 0.12141271 0.37943417 0.016713489 0.022959644 -0.40012282 0.085530035 0.012167012 0.022903208 0.04261528 -0.025733579 -0.04491348 -0.074131764 0.21080056 0.060309116 -0.25152066 -0.448454 -0.16791302 0.119073726 -0.0018989292 -0.11189171 -0.109556414 0.016924059 0.34109533 -0.18016312 -0.06879893 -0.07625091 -0.12714203 -0.10070817 0.1886523 -0.14145288 0.07304159 0.15007053 0.007713667 -0.09909863 0.10378762 -0.18543296 0.08657968 -0.075550094
18 -0.31388238 0.060497165 0.06508817 0.25071475 0.09422652 0.12320006 0.026465664 -0.1387259 0.080221474 0.17631087 0.47173274 -0.3681194 -0.15775582 -0.008096021 0.23942496 0.08552583 0.7624723 0.02668307 0.1069262 -0.25112543 0.26688525 -0.25033602 0.23613524 0.20082854 0.10470039 0.47592136 -0.09210319 0.13233605 0.03007497 -0.22707112 -0.42145655 0.026886841 0.084386915 -0.13174888 -0.09541191 -0.19770718 -0.017689906 -0.0004813669 -0.06756832 -0.016481819 -0.12131784 -0.06890036 0.0047858423 0.13024434 0.06753971 -0.07789729 -0.17936979 0.22021511 0.42227778 -0.07186279 0.045747016 -0.14090471 -0.37234583 0.10626185 0.24249634 -0.14991546 -0.12340167 0.034972433 0.29871714 0.045768686 0.07691554 -0.1831873 -0.01921196 -0.26901984
74 -0.24191809 -0.11114694 0.0359944 0.25868404 0.212839 0.020891009 -0.12520945 0.05511531 0.017778859 0.032487307 0.38558012 -0.36456925 -0.24779774 0.10254786 0.07764168 0.10842567 0.969538 0.045777958 0.04279332 -0.10664334 0.060914014 -0.15145624 0.30073428 -0.048266802 0.05580012 0.6168889 0.101262644 0.25203565 -0.059602432 -0.02406146 -0.38210607 0.110372834 0.14246449 -0.039333068 0.13902964 -0.031145915 -0.0536734 -0.110978164 0.27876517 0.040325884 -0.2520904 -0.43598792 -0.08296287 0.0748277 -0.02399267 0.0010071485 -0.028273316 0.06216471 0.2892302 -0.23750584 -0.01905226 -0.062046085 -0.14682601 -0.11660864 0.29398146 -0.042974327 0.06709735 0.14434338 0.06465758 -0.048494842 0.055139568 -0.17206623 0.07563702 0.021829551
33 -0.32383305 -0.004778884 0.11708249 0.22463927 0.10086061 -0.010978634 0.19352184 -0.04575009 0.07175557 0.17492637 0.4748001 -0.3396248 -0.067467764 0.035253804 0.18305412 -0.015010938 0.75751674 0.047742706 0.14214343 -0.309557 0.3537222 -0.2549077 0.2610161 0.25838917 0.11999813 0.42165536 -0.06990681 0.15812963 0.07204493 -0.2302712 -0.38183904 0.031095909 0.017394625 -0.17097354 -0.034668762 -0.15759888 -0.05484685 -0.040883314 0.010682612 -0.022167904 -0.16509332 -0.14252563 -0.08812263 0.1605776 0.09219794 -0.05906699 -0.13575393 0.17051247 0.36385217 -0.14067389 0.17714931 -0.15899338 -0.3801637 0.0663432 0.30036741 -0.10779664 -0.05905521 0.0011472364 0.20407483 -0.03846327 0.06828609 -0.3182788 -0.033114247 -0.18777138
55 -0.17799142 -0.041461974 -0.009515403 0.30214265 0.18591747 0.014883669 -0.23189597 0.09951506 -0.030536039 0.0437005 0.4843781 -0.3631752 -0.33627486 0.1646463 0.23498197 0.1408558 0.92891777 0.012482062 0.04010077 0.09011177 0.11690108 -0.12897287 0.23109211 -0.032027084 0.120860696 0.6471705 0.20347142 0.31601086 0.10991514 0.06356052 -0.40621647 0.16794617 -0.029099528 -0.06375812 0.027447421 -0.0760737 -0.0027613356 -0.03726884 0.20106374 -0.005465188 -0.28018838 -0.44707632 -0.07045851 0.19595239 0.0143012535 -0.05502178 -0.0007292224 -0.00057815196 0.20502271 -0.27999154 -0.08992272 -0.033417944 -0.24119984 -0.15407144 0.1606381 -0.057423 0.1188178 0.17929971 -0.00028822938 -0.14840634 0.21578288 -0.19666159 0.13245165 -0.11066371
72 -0.062482193 -0.19323362 -0.025813637 0.24897423 0.29394898 -0.020575864 -0.12590979 0.14524725 -0.09456121 -0.003959157 0.42965707 -0.49981079 -0.30607855 0.12471737 0.25075778 0.12554368 0.972693 0.0355998 0.06626241 -0.04044308 0.093227334 -0.1889268 0.2975684 -0.07004447 0.09319721 0.5915344 0.15191063 0.2746666 0.07862842 0.030435657 -0.33050826 0.1331248 0.102583714 -0.08557477 -0.0028148612 -0.018508144 0.015265286 -0.026555987 0.25772813 0.026856825 -0.27351063 -0.5383593 -0.21252416 0.19601567 -0.0063126595 -0.043081697 -0.078056574 0.042119626 0.24695832 -0.24467088 -0.08652647 -0.038045492 -0.15429066 -0.13184947 0.16094865 -0.07374238 0.07077958 0.106348395 0.01196152 -0.08239705 0.050108265 -0.13077272 0.048068848 -0.11034737
43 -0.11803925 -0.123981565 0.054105286 0.23906891 0.18454938 -0.0021396524 -0.18375073 0.05888117 -0.11440244 -0.09762251 0.48835844 -0.34496307 -0.31054124 0.1644062 0.18072306 0.032505132 0.95775455 0.042220645 0.10009336 -0.06628615 0.11995066 -0.123681925 0.29612422 -0.06646391 0.08795979 0.60895544 0.17946427 0.318356 0.034154788 0.035785742 -0.47123814 0.08958531 0.11168564 -0.06048389 0.047389977 0.042387176 0.046386402 -0.0025322938 0.20893551 0.032251652 -0.28224915 -0.43462014 -0.079566486 0.20655203 -0.01125041 0.009703618 -0.021116395 0.025401631 0.3301994 -0.26425606 -0.09610393 -0.08208064 -0.064561464 -0.13314188 0.267322 -0.123633 0.1804454 0.10698699 -0.038179595 -0.12692986 0.11153035 -0.10561118 0.14846021 -0.14212395
53 -0.08299108 -0.050534744 -0.0052695745 0.18936315 0.19852702 -0.03459709 -0.20463462 0.024220789 -0.064824 -0.034999765 0.48742446 -0.26868212 -0.379961 0.08890168 0.20868431 0.071402945 1.0519105 0.056407772 0.12578644 0.035050094 0.09817346 -0.152127 0.25119868 -0.028911017 0.12310685 0.5972883 0.1748724 0.2816746 0.017117541 -0.044585288 -0.41560996 0.075055614 0.05631973 0.01278727 0.040422972 -0.079397775 0.04452727 -0.04984651 0.24182948 -0.04082752 -0.27714705 -0.46359557 -0.17938164 0.118737765 0.016060477 -0.005032676 0.016401103 0.06744402 0.25375032 -0.20268062 -0.10511839 -0.11287716 -0.19765288 -0.11755197 0.112882674 -0.058328614 0.14528453 0.16903779 0.019301215 -0.18999402 0.026540583 -0.1655679 0.128757 -0.116387874
70 -0.124289684 -0.11025123 0.030922087 0.28016892 0.2256865 0.015145047 -0.20697246 0.10767937 -0.043321382 -0.0013144127 0.44010153 -0.36595595 -0.4061611 0.19285041 0.21847273 0.15851334 0.9590097 0.0005341465 0.04632141 0.01924976 -0.010131914 -0.16327716 0.31589627 0.010276482 0.07856274 0.6325413 0.044088572 0.3313781 0.16943625 0.052819937 -0.393575 0.18493374 0.02524559 0.02910355 0.052081868 -0.0022200865 0.045028277 -0.14558043 0.21433857 -0.061039772 -0.2784623 -0.4065895 -0.103482366 0.053409096 0.020572694 -0.003780062 -0.14785662 0.07460246 0.29802054 -0.230388 -0.084320664 -0.105702795 -0.12046435 -0.1370713 0.16267045 -0.09277278 0.16262816 0.11573455 -0.02256568 -0.115079366 0.13793235 -0.20413834 0.11700121 -0.0973802
17 -0.145571 -0.12860829 0.049345892 0.25946718 0.23355281 -0.0031995378 -0.22098355 0.025219161 -0.040537916 0.025808204 0.49207503 -0.3729778 -0.25804758 0.11557058 0.14184733 0.13703947 0.9914783 0.0778707 0.12186879 0.060137726 0.043225195 -0.05801994 0.275822 -0.013084148 0.07859785 0.608168 0.16449068 0.30779842 -0.008736621 -0.024563095 -0.4252671 0.07020991 0.056656446 -0.03642872 0.03805047 0.02208516 0.0641485 -0.028754355 0.20451851 0.006899272 -0.25498053 -0.49616423 -0.17186962 0.1522649 0.037892725 0.0046633086 -0.022031149 0.048026666 0.23659475 -0.160033 -0.08691408 -0.09145385 -0.15042305 -0.19380504 0.22333406 -0.1304329 0.12242521 0.25307915 0.035642367 -0.10883101 0.12746374 -0.12288813 0.12547587 -0.10395076
0 -0.1078287 -0.11281147 -0.009710329 0.19514814 0.2414451 0.0053024623 -0.18516502 0.073841184 -0.15002288 -0.016594917 0.49082404 -0.40648943 -0.34296495 0.08508067 0.1616009 0.043265607 0.9658013 0.08943939 0.10513664 0.07439367 0.06499908 -0.13580039 0.25675046 0.013914592 0.056940302 0.62294394 0.12849832 0.42603773 0.07275472 -0.05526318 -0.35693672 0.11372045 0.07264894 -0.088853784 0.1121654 0.009393071 -0.03818821 -0.13137357 0.2832149 -0.06508355 -0.33786052 -0.3869365 -0.1201804 0.13646133 0.04577977 -0.04457894 -0.041701943 0.006465919 0.2591661 -0.1751577 -0.053252093 -0.08626258 -0.13363963 -0.16663162 0.2531253 -0.108807445 0.023333862 0.1794118 -0.019337116 -0.15216076 0.19099334 -0.186736 0.14406581 -0.09931829
63 -0.17030613 -0.14961763 0.009070494 0.24327973 0.24382938 0.014308923 -0.17164242 0.07434987 -0.11083802 0.019476622 0.40531716 -0.23232508 -0.40936244 0.10966688 0.14037988 0.15508938 0.9642236 0.03488733 0.014963035 0.04368436 0.054781612 -0.2333311 0.35452238 0.024886474 0.0657222 0.68871444 0.011108595 0.30653095 0.09376162 0.09599883 -0.4310311 0.100925505 0.07659687 0.028059563 -0.004065537 -0.014933192 0.01416959 -0.19162354 0.11693996 0.004499897 -0.26187047 -0.3870921 -0.09809075 0.12953278 0.019676099 -0.07389636 -0.033235677 -0.03924764 0.30156696 -0.26731983 -0.02219029 -0.06455004 -0.11331631 -0.13339832 0.08929348 -0.13020667 0.12450635 0.040782735 0.13645968 -0.09651945 0.06900277 -0.25967717 0.09406816 -0.062459398
31 -0.16338518 -0.15010202 -0.074974306 0.16177736 0.21384716 -0.03854543 -0.1667015 0.18920268 -0.0014253528 -0.042765614 0.50066906 -0.32716233 -0.32051504 0.18296064 0.22141804 0.06588107 1.0149654 0.04083275 0.06959034 -0.00826769 0.03577577 -0.15155394 0.2635545 0.03728183 0.04036533 0.6508885 0.08584661 0.3668706 0.14790748 0.05047871 -0.37235525 0.07340039 0.10192961 0.0158237 0.07359505 -0.047078054 0.014910952 -0.09989742 0.11750555 -0.04316513 -0.25215504 -0.42399865 -0.18654194 0.20556916 0.1002542 -0.002061551 -0.06456222 -0.038744383 0.28076968 -0.26688725 -0.0007717678 -0.10540913 -0.2108921 -0.12666254 0.17648378 -0.045584213 0.22503509 0.086814836 -0.06470366 -0.042770863 0.14969738 -0.12594013 0.15959062 -0.11771493
32 -0.10353004 -0.06203261 0.053612888 0.26107538 0.2298138 -0.07234327 -0.23070137 0.017702537 -0.09054761 -0.06771467 0.42825642 -0.32215938 -0.4025066 0.1294372 0.22153519 0.032803074 1.0384835 0.055123612 0.057677723 -0.004497419 0.056118753 -0.121648915 0.2924061 -0.048961025 0.024181636 0.6823212 0.021345587 0.37696657 0.08351548 0.10457658 -0.3692302 0.18139136 0.1281944 -0.016059708 0.03327899 0.0122596035 0.027127286 -0.050362647 0.281002 0.020165797 -0.22532056 -0.39079475 -0.20505424 0.1607676 0.09388478 -0.092142016 -0.05477059 0.03818042 0.31292182 -0.22399956 -0.028270576 -0.04856405 -0.09907318 -0.07309416 0.14592855 -0.090212345 0.17495473 0.091651805 -0.011542699 -0.16012053 0.09708111 -0.2209302 0.15343438 0.0012595509
27 -0.07343367 -0.08829843 -0.0045052934 0.24174091 0.24666521 0.09337678 -0.22109085 0.0914925 -0.105028965 -0.026428932 0.4424008 -0.27883527 -0.32804862 0.1570368 0.29921058 0.03283816 0.9391189 0.017917804 0.12636484 0.022286685 0.07558371 -0.18638255 0.4241212 -0.024938997 0.128734 0.63291425 0.12228962 0.37533724 0.16541362 0.039821975 -0.41300508 0.1326866 -0.0099881375 -0.024801418 0.040280376 0.004015243 0.01920061 -0.11097434 0.24594077 0.032771226 -0.2844448 -0.46438894 -0.27485386 0.13372111 0.03808556 -0.14821069 0.0021394924 0.050609782 0.24954066 -0.27355555 -0.07633147 -0.01457428 -0.14333479 -0.12080422 0.23990506 -0.04123097 0.11660936 0.06385226 -0.013421928 -0.08364552 0.17441717 -0.20857154 0.14246193 -0.08928252
5 -0.15290922 -0.06693746 0.047211904 0.22300212 0.26012748 0.016942706 -0.16547522 0.012138185 -0.051308688 -0.042087372 0.46762395 -0.28491402 -0.3531891 0.16568513 0.14844713 0.08134357 0.9694 0.06437376 0.0497343 0.06392465 0.024637137 -0.062430922 0.34901038 0.0006113391 0.12442535 0.70187175 0.070947856 0.40131676 0.121230215 0.020457363 -0.46767846 0.16793981 0.065091245 -0.09739046 0.07245438 -0.049116805 -0.029872151 -0.10273969 0.14128263 -0.0112325335 -0.24072222 -0.49905694 -0.20093277 0.1124172 -0.03125763 -0.10037551 -0.05655022 -0.004595011 0.2748034 -0.20676552 -0.08757663 -0.025817638 -0.09263432 -0.069212645 0.1515273 -0.14835475 0.1531201 0.13964441 -0.015388654 -0.09165481 0.104392745 -0.19413157 0.17086136 -0.08209561
71 -0.55201524 0.30451745 0.154108 0.22073302 0.69762045 0.15083271 -0.34684694 0.13264784 0.13632634 0.0055005145 1.4364321 -0.63692135 0.4608185 0.3083838 0.10567124 -0.3440465 3.13978 0.4356469 0.21684366 -0.2132606 -0.28674787 -0.37143588 0.8086865 0.13285114 1.2398913 0.35397637 -0.45843208 0.8979435 0.27607828 0.3858835 -0.5526163 0.60760474 0.15098181 -0.18005548 -0.3198142 0.028163446 -0.097991295 -0.21020602 0.4788262 -0.030453037 -0.327706 -0.99056363 -0.21782623 0.50974417 0.0326442 -0.17005342 -0.33151808 0.40395615 0.8356318 -0.41708633 -0.06178866 -0.29834464 -0.39239764 -0.24688718 0.76325524 -0.48099145 0.3570709 0.42523843 0.43533286 0.023944387 0.35740504 -0.64216083 0.27732855 -0.4856437
23 -0.1632715 -0.14273879 0.085322455 0.26662037 0.15350318 0.0070050675 -0.1973879 0.0006974647 -0.17587511 -0.024868509 0.50526536 -0.22046882 -0.491571 0.0691727 0.2699389 0.153813 1.0116285 0.04191838 0.084806204 0.16603002 -0.08076218 -0.17029986 0.27502754 0.08343416 0.015841836 0.68175787 -0.07180521 0.4429961 0.19769223 0.10327905 -0.39339444 0.107870124 0.015944581 0.027961873 0.00052873313 -0.0074462905 0.08099017 -0.11384171 0.21110927 -0.022370843 -0.2391604 -0.37443906 -0.20388034 0.1381666 0.105132066 -0.039268054 -0.09804878 -0.011228504 0.30673626 -0.24809127 -0.010839068 -0.081904 -0.14905149 -0.026539452 0.13789357 -0.088742495 0.26396838 0.124930784 0.0054048547 -0.03345058 0.026328847 -0.23974054 0.11335635 -0.071876444
65 -0.26677892 -0.07211024 0.039402265 0.30861062 0.13547036 -0.041469328 -0.26417002 0.013284285 -0.06355723 -0.026153939 0.49898863 -0.14870916 -0.48013425 0.0429626 0.23622774 0.24201716 0.97269326 -0.012978504 0.04339397 0.13760087 -0.051845558 -0.21009772 0.33111876 -0.042533617 -0.024064528 0.6130435 0.038333774 0.49836558 0.06948845 0.046020232 -0.34855917 0.11630645 0.060683656 -0.05645701 0.017101316 0.018886197 0.0360213 -0.13984391 0.12427759 -0.079047434 -0.3351827 -0.30391452 -0.21321946 0.030883858 0.09124384 -0.0771474 -0.094948374 -0.018181557 0.38903195 -0.19041796 0.015227702 -0.18324561 -0.178923 -0.02652119 0.1432899 0.008666614 0.17396753 0.08054982 0.0946038 -0.08539094 0.0512741 -0.119622245 0.114016324 -0.15206942
37 -0.40908238 0.31225765 0.1312379 0.10831254 0.814588 0.34774917 -0.2223687 0.16620713 0.016497016 0.03681905 1.427201 -0.6405132 0.5874354 0.3372154 0.13586065 -0.38269028 3.1382515 0.37814692 0.10834698 -0.28012034 -0.19855951 -0.55659646 0.91579455 0.17060167 1.1269523 0.41973865 -0.5379829 0.84103805 0.36839968 0.41095677 -0.7173198 0.59047145 -0.0829263 -0.27272743 -0.3332526 -0.09479859 -0.11029421 -0.22476174 0.4076133 -0.090889916 -0.50035965 -1.0386368 -0.3965097 0.33007714 0.105233505 -0.20522852 -0.32644102 0.42306978 0.8035066 -0.4775584 0.05738416 -0.23761812 -0.5419077 -0.33484083 0.70388526 -0.3427801 0.24880247 0.34978637 0.31536815 -0.017381571 0.50419146 -0.62243634 0.2526774 -0.40757132
6 -0.19360273 -0.19029717 -0.027073663 0.25953403 0.2417969 -0.008167661 -0.26041186 0.014500647 -0.1351205 0.0039569293 0.45082685 -0.27487832 -0.4543089 0.07870251 0.21828544 0.21527645 0.9191339 0.09162951 0.077594094 0.11373208 -0.027204122 -0.1674312 0.43618298 0.016097663 0.0107688755 0.74408424 -0.047752462 0.45689934 0.180878 0.13571021 -0.4345244 0.013863361 0.07723859 -0.030323314 0.0144116245 -0.020232974 -0.023105277 -0.21387464 0.103286065 -0.038817696 -0.3714386 -0.25028917 -0.3206603 0.11153708 0.03196626 -0.099376544 -0.11952465 -0.09518483 0.30568752 -0.23203859 0.01846725 -0.12555958 -0.15449168 0.012628559 0.01579998 -0.11721976 0.24608792 0.082626745 0.103517294 0.02206085 0.12012921 -0.19741733 0.18778212 -0.19146511
51 -0.18370679 0.02484312 -0.020744106 0.19070427 0.231797 0.32941598 0.19161099 -0.12826972 0.21477853 0.12608413 0.35522595 -0.3460357 -0.20195533 -0.0966697 0.27655044 0.16363886 0.8799336 0.086765364 0.23265798 -0.3523302 0.43403986 -0.039600704 0.34283543 0.3213088 0.1419342 0.5583074 -0.03519989 -0.036174543 0.10784499 -0.17213553 -0.39212483 -0.017595273 0.068645656 -0.14652543 0.0076453225 -0.5029642 0.35303017 0.25279936 -0.14938399 0.029125413 -0.30360988 -0.057188045 -0.07535067 -0.06446398 0.20827466 0.1881819 -0.14742616 0.23515049 0.5299077 -0.09065074 0.40651107 0.06248249 -0.43129563 0.19124404 0.0320714 0.023030076 -0.31929934 -0.020893008 0.49432132 -0.057754096 0.25730327 -0.3556823 0.08607082 -0.22849482
64 -0.43544033 -0.60960907 0.17227876 -0.32561296 0.12775426 -0.029551486 -0.5153777 -0.32340655 -0.16960767 0.019309051 0.72070456 -0.0520657 -0.6697805 0.9156672 0.62562525 0.4482422 0.98669815 -0.0052848933 -0.034391932 0.31687772 -0.15662599 -0.10162562 0.36194608 -0.009084659 0.18818012 1.0165024 -0.40415382 1.0054231 0.29186377 0.5150928 -0.6053084 -0.29913852 0.19403028 -0.098500974 0.25620505 0.0017239603 -0.047671605 -0.08526649 0.20809138 -0.23344496 -0.32366905 -0.18563186 -0.19108453 -0.15309383 -0.091926284 -0.04593893 -0.050875627 0.04896973 0.29045802 -0.3196921 0.62368274 -0.41567683 -0.029225178 0.35851574 -0.19582252 -0.07988655 -0.05697547 0.18132024 0.69283915 0.023609662 0.09326314 -0.22955342 0.18330987 -0.5509528
